{
    "learner": {
        "attributes": {
            "best_iteration": "4",
            "best_score": "0.02513497150514035"
        },
        "feature_names": [
            "DX_Y_NYB_ret1",
            "DX_Y_NYB_lag_ret1_1",
            "DX_Y_NYB_lag_ret1_2",
            "DX_Y_NYB_lag_ret1_3",
            "DX_Y_NYB_lag_ret1_5",
            "DX_Y_NYB_SMA_5",
            "DX_Y_NYB_EMA_5",
            "DX_Y_NYB_SMA_10",
            "DX_Y_NYB_EMA_10",
            "DX_Y_NYB_SMA_20",
            "DX_Y_NYB_EMA_20",
            "DX_Y_NYB_RSI_14",
            "DX_Y_NYB_vol_10",
            "DX_Y_NYB_price_sma_ratio",
            "CL_F_ret1",
            "CL_F_lag_ret1_1",
            "CL_F_lag_ret1_2",
            "CL_F_lag_ret1_3",
            "CL_F_lag_ret1_5",
            "CL_F_SMA_5",
            "CL_F_EMA_5",
            "CL_F_SMA_10",
            "CL_F_EMA_10",
            "CL_F_SMA_20",
            "CL_F_EMA_20",
            "CL_F_RSI_14",
            "CL_F_vol_10",
            "CL_F_price_sma_ratio",
            "HG_F_ret1",
            "HG_F_lag_ret1_1",
            "HG_F_lag_ret1_2",
            "HG_F_lag_ret1_3",
            "HG_F_lag_ret1_5",
            "HG_F_SMA_5",
            "HG_F_EMA_5",
            "HG_F_SMA_10",
            "HG_F_EMA_10",
            "HG_F_SMA_20",
            "HG_F_EMA_20",
            "HG_F_RSI_14",
            "HG_F_vol_10",
            "HG_F_price_sma_ratio",
            "FXI_ret1",
            "FXI_lag_ret1_1",
            "FXI_lag_ret1_2",
            "FXI_lag_ret1_3",
            "FXI_lag_ret1_5",
            "FXI_SMA_5",
            "FXI_EMA_5",
            "FXI_SMA_10",
            "FXI_EMA_10",
            "FXI_SMA_20",
            "FXI_EMA_20",
            "FXI_RSI_14",
            "FXI_vol_10",
            "FXI_price_sma_ratio",
            "sentiment__index",
            "sentiment__news_count"
        ],
        "feature_types": [
            "float",
            "float",
            "float",
            "float",
            "float",
            "float",
            "float",
            "float",
            "float",
            "float",
            "float",
            "float",
            "float",
            "float",
            "float",
            "float",
            "float",
            "float",
            "float",
            "float",
            "float",
            "float",
            "float",
            "float",
            "float",
            "float",
            "float",
            "float",
            "float",
            "float",
            "float",
            "float",
            "float",
            "float",
            "float",
            "float",
            "float",
            "float",
            "float",
            "float",
            "float",
            "float",
            "float",
            "float",
            "float",
            "float",
            "float",
            "float",
            "float",
            "float",
            "float",
            "float",
            "float",
            "float",
            "float",
            "float",
            "float",
            "float"
        ],
        "gradient_booster": {
            "model": {
                "gbtree_model_param": {
                    "num_parallel_tree": "1",
                    "num_trees": "15"
                },
                "iteration_indptr": [
                    0,
                    1,
                    2,
                    3,
                    4,
                    5,
                    6,
                    7,
                    8,
                    9,
                    10,
                    11,
                    12,
                    13,
                    14,
                    15
                ],
                "tree_info": [
                    0,
                    0,
                    0,
                    0,
                    0,
                    0,
                    0,
                    0,
                    0,
                    0,
                    0,
                    0,
                    0,
                    0,
                    0
                ],
                "trees": [
                    {
                        "base_weights": [
                            -0E0,
                            9.6658774E-4,
                            -3.2227088E-3,
                            4.6488107E-3,
                            -1.5191124E-3,
                            6.9971373E-3,
                            -0E0,
                            -4.5567895E-3,
                            2.8041336E-3,
                            7.998076E-3,
                            -0E0,
                            -9.677325E-4,
                            -0E0,
                            -0E0,
                            -7.4652527E-3,
                            5.8959457E-3,
                            -0E0,
                            -0E0,
                            1.0349733E-2,
                            -0E0,
                            -1.9293872E-4,
                            -0E0,
                            -9.956911E-3,
                            8.727014E-3,
                            -0E0,
                            1.1811072E-3,
                            -0E0,
                            -1.1555327E-3,
                            -0E0,
                            1.2989132E-3,
                            -0E0
                        ],
                        "categories": [],
                        "categories_nodes": [],
                        "categories_segments": [],
                        "categories_sizes": [],
                        "default_left": [
                            0,
                            0,
                            0,
                            0,
                            0,
                            0,
                            0,
                            0,
                            0,
                            0,
                            0,
                            0,
                            0,
                            0,
                            0,
                            0,
                            0,
                            0,
                            0,
                            0,
                            0,
                            0,
                            0,
                            0,
                            0,
                            0,
                            0,
                            0,
                            0,
                            0,
                            0
                        ],
                        "id": 0,
                        "left_children": [
                            1,
                            3,
                            -1,
                            5,
                            7,
                            9,
                            11,
                            13,
                            15,
                            17,
                            -1,
                            19,
                            -1,
                            -1,
                            21,
                            23,
                            -1,
                            -1,
                            25,
                            -1,
                            -1,
                            -1,
                            27,
                            29,
                            -1,
                            -1,
                            -1,
                            -1,
                            -1,
                            -1,
                            -1
                        ],
                        "loss_changes": [
                            5.3610983E-3,
                            1.9675544E-3,
                            0E0,
                            1.356897E-3,
                            1.396245E-3,
                            6.2180776E-4,
                            1.4047593E-5,
                            7.6149567E-4,
                            5.681887E-4,
                            8.110232E-4,
                            0E0,
                            2.6900292E-5,
                            0E0,
                            0E0,
                            1.0981527E-3,
                            6.822869E-4,
                            0E0,
                            0E0,
                            8.6691044E-4,
                            0E0,
                            0E0,
                            0E0,
                            4.670932E-4,
                            5.775555E-4,
                            0E0,
                            0E0,
                            0E0,
                            0E0,
                            0E0,
                            0E0,
                            0E0
                        ],
                        "parents": [
                            2147483647,
                            0,
                            0,
                            1,
                            1,
                            3,
                            3,
                            4,
                            4,
                            5,
                            5,
                            6,
                            6,
                            7,
                            7,
                            8,
                            8,
                            9,
                            9,
                            11,
                            11,
                            14,
                            14,
                            15,
                            15,
                            18,
                            18,
                            22,
                            22,
                            23,
                            23
                        ],
                        "right_children": [
                            2,
                            4,
                            -1,
                            6,
                            8,
                            10,
                            12,
                            14,
                            16,
                            18,
                            -1,
                            20,
                            -1,
                            -1,
                            22,
                            24,
                            -1,
                            -1,
                            26,
                            -1,
                            -1,
                            -1,
                            28,
                            30,
                            -1,
                            -1,
                            -1,
                            -1,
                            -1,
                            -1,
                            -1
                        ],
                        "split_conditions": [
                            5.6130414E0,
                            0E0,
                            -3.2227088E-3,
                            4.953325E0,
                            2.929817E-3,
                            1.0600346E0,
                            2.0084612E-4,
                            4.721809E0,
                            1.7088678E-2,
                            1.09741185E-2,
                            -0E0,
                            -9.162552E-3,
                            -0E0,
                            -0E0,
                            1.0709903E-2,
                            4.133101E-3,
                            -0E0,
                            -0E0,
                            7.2076996E1,
                            -0E0,
                            -1.9293872E-4,
                            -0E0,
                            5.046925E0,
                            -2.2321818E-3,
                            -0E0,
                            1.1811072E-3,
                            -0E0,
                            -1.1555327E-3,
                            -0E0,
                            1.2989132E-3,
                            -0E0
                        ],
                        "split_indices": [
                            36,
                            18,
                            0,
                            37,
                            3,
                            55,
                            4,
                            38,
                            28,
                            40,
                            0,
                            31,
                            0,
                            0,
                            40,
                            4,
                            0,
                            0,
                            39,
                            0,
                            0,
                            0,
                            37,
                            45,
                            0,
                            0,
                            0,
                            0,
                            0,
                            0,
                            0
                        ],
                        "split_type": [
                            0,
                            0,
                            0,
                            0,
                            0,
                            0,
                            0,
                            0,
                            0,
                            0,
                            0,
                            0,
                            0,
                            0,
                            0,
                            0,
                            0,
                            0,
                            0,
                            0,
                            0,
                            0,
                            0,
                            0,
                            0,
                            0,
                            0,
                            0,
                            0,
                            0,
                            0
                        ],
                        "sum_hessian": [
                            1.83E2,
                            1.79E2,
                            4E0,
                            8.8E1,
                            9.1E1,
                            6.6E1,
                            2.2E1,
                            6.7E1,
                            2.4E1,
                            6E1,
                            6E0,
                            1.4E1,
                            8E0,
                            2.9E1,
                            3.8E1,
                            2.1E1,
                            3E0,
                            1.7E1,
                            4.3E1,
                            4E0,
                            1E1,
                            6E0,
                            3.2E1,
                            1.8E1,
                            3E0,
                            3.9E1,
                            4E0,
                            2.7E1,
                            5E0,
                            1.1E1,
                            7E0
                        ],
                        "tree_param": {
                            "num_deleted": "0",
                            "num_feature": "58",
                            "num_nodes": "31",
                            "size_leaf_vector": "1"
                        }
                    },
                    {
                        "base_weights": [
                            -2.1213201E-4,
                            2.8625727E-4,
                            -3.1047538E-3,
                            4.367189E-3,
                            -1.9057954E-3,
                            9.4780475E-3,
                            -0E0,
                            -0E0,
                            -5.2572917E-3,
                            1.8024635E-2,
                            6.8435364E-4,
                            -2.039898E-3,
                            -0E0,
                            -0E0,
                            3.0739459E-3,
                            -0E0,
                            -8.6767385E-3,
                            -0E0,
                            2.2272931E-2,
                            -0E0,
                            2.8909808E-3,
                            -0E0,
                            -5.417295E-4,
                            -0E0,
                            -1.5226725E-3,
                            -0E0,
                            7.202603E-4,
                            -0E0,
                            -1.4084709E-2,
                            -0E0,
                            2.6004373E-3,
                            -0E0,
                            4.098712E-4,
                            -0E0,
                            -2.2329173E-4,
                            -0E0,
                            -1.67882E-3
                        ],
                        "categories": [],
                        "categories_nodes": [],
                        "categories_segments": [],
                        "categories_sizes": [],
                        "default_left": [
                            0,
                            0,
                            0,
                            0,
                            0,
                            0,
                            0,
                            0,
                            0,
                            0,
                            0,
                            0,
                            0,
                            0,
                            0,
                            0,
                            0,
                            0,
                            0,
                            0,
                            0,
                            0,
                            0,
                            0,
                            0,
                            0,
                            0,
                            0,
                            0,
                            0,
                            0,
                            0,
                            0,
                            0,
                            0,
                            0,
                            0
                        ],
                        "id": 1,
                        "left_children": [
                            1,
                            3,
                            -1,
                            5,
                            7,
                            9,
                            11,
                            13,
                            15,
                            17,
                            19,
                            21,
                            -1,
                            23,
                            25,
                            -1,
                            27,
                            -1,
                            29,
                            -1,
                            31,
                            -1,
                            -1,
                            -1,
                            33,
                            -1,
                            -1,
                            -1,
                            35,
                            -1,
                            -1,
                            -1,
                            -1,
                            -1,
                            -1,
                            -1,
                            -1
                        ],
                        "loss_changes": [
                            5.78979E-3,
                            1.7841628E-3,
                            0E0,
                            2.413338E-3,
                            1.0609175E-3,
                            1.3484766E-3,
                            8.7384855E-5,
                            2.2677945E-4,
                            6.984072E-4,
                            7.548025E-4,
                            1.206108E-4,
                            3.5282143E-4,
                            0E0,
                            3.9415037E-5,
                            4.476279E-4,
                            0E0,
                            6.693045E-4,
                            0E0,
                            1.3304502E-4,
                            0E0,
                            8.466841E-5,
                            0E0,
                            0E0,
                            0E0,
                            3.0387837E-5,
                            0E0,
                            0E0,
                            0E0,
                            3.2297336E-4,
                            0E0,
                            0E0,
                            0E0,
                            0E0,
                            0E0,
                            0E0,
                            0E0,
                            0E0
                        ],
                        "parents": [
                            2147483647,
                            0,
                            0,
                            1,
                            1,
                            3,
                            3,
                            4,
                            4,
                            5,
                            5,
                            6,
                            6,
                            7,
                            7,
                            8,
                            8,
                            9,
                            9,
                            10,
                            10,
                            11,
                            11,
                            13,
                            13,
                            14,
                            14,
                            16,
                            16,
                            18,
                            18,
                            20,
                            20,
                            24,
                            24,
                            28,
                            28
                        ],
                        "right_children": [
                            2,
                            4,
                            -1,
                            6,
                            8,
                            10,
                            12,
                            14,
                            16,
                            18,
                            20,
                            22,
                            -1,
                            24,
                            26,
                            -1,
                            28,
                            -1,
                            30,
                            -1,
                            32,
                            -1,
                            -1,
                            -1,
                            34,
                            -1,
                            -1,
                            -1,
                            36,
                            -1,
                            -1,
                            -1,
                            -1,
                            -1,
                            -1,
                            -1,
                            -1
                        ],
                        "split_conditions": [
                            1.0124298E0,
                            -1.0781504E-3,
                            -3.1047538E-3,
                            3.578459E-3,
                            4.7889606E1,
                            9.9802464E-1,
                            1.1435664E-2,
                            -3.961678E-4,
                            9.9033E1,
                            1.2576383E-2,
                            -2.2357847E-3,
                            -1.151242E-2,
                            -0E0,
                            -9.025661E-3,
                            1.1058143E-2,
                            -0E0,
                            -2.8466887E-3,
                            -0E0,
                            6.0802002E1,
                            -0E0,
                            9.807E1,
                            -0E0,
                            -5.417295E-4,
                            -0E0,
                            4.5153522E0,
                            -0E0,
                            7.202603E-4,
                            -0E0,
                            -1.6630843E-2,
                            -0E0,
                            2.6004373E-3,
                            -0E0,
                            4.098712E-4,
                            -0E0,
                            -2.2329173E-4,
                            -0E0,
                            -1.67882E-3
                        ],
                        "split_indices": [
                            13,
                            46,
                            0,
                            30,
                            25,
                            55,
                            30,
                            29,
                            7,
                            40,
                            0,
                            45,
                            0,
                            43,
                            46,
                            0,
                            29,
                            0,
                            19,
                            0,
                            5,
                            0,
                            0,
                            0,
                            36,
                            0,
                            0,
                            0,
                            43,
                            0,
                            0,
                            0,
                            0,
                            0,
                            0,
                            0,
                            0
                        ],
                        "split_type": [
                            0,
                            0,
                            0,
                            0,
                            0,
                            0,
                            0,
                            0,
                            0,
                            0,
                            0,
                            0,
                            0,
                            0,
                            0,
                            0,
                            0,
                            0,
                            0,
                            0,
                            0,
                            0,
                            0,
                            0,
                            0,
                            0,
                            0,
                            0,
                            0,
                            0,
                            0,
                            0,
                            0,
                            0,
                            0,
                            0,
                            0
                        ],
                        "sum_hessian": [
                            1.75E2,
                            1.7E2,
                            5E0,
                            7.5E1,
                            9.5E1,
                            4.2E1,
                            3.3E1,
                            4.5E1,
                            5E1,
                            1.5E1,
                            2.7E1,
                            2E1,
                            1.3E1,
                            2.2E1,
                            2.3E1,
                            2.3E1,
                            2.7E1,
                            4E0,
                            1.1E1,
                            1.2E1,
                            1.5E1,
                            6E0,
                            1.4E1,
                            6E0,
                            1.6E1,
                            1.1E1,
                            1.2E1,
                            1.4E1,
                            1.3E1,
                            3E0,
                            8E0,
                            3E0,
                            1.2E1,
                            3E0,
                            1.3E1,
                            3E0,
                            1E1
                        ],
                        "tree_param": {
                            "num_deleted": "0",
                            "num_feature": "58",
                            "num_nodes": "37",
                            "size_leaf_vector": "1"
                        }
                    },
                    {
                        "base_weights": [
                            -4.4709424E-4,
                            -0E0,
                            -3.4271402E-3,
                            2.6717514E-3,
                            -1.0002672E-3,
                            4.9494314E-3,
                            -0E0,
                            -3.7472823E-3,
                            -0E0,
                            6.2968633E-3,
                            -0E0,
                            -0E0,
                            -6.7109093E-3,
                            3.3085868E-3,
                            -0E0,
                            -0E0,
                            7.7426233E-3,
                            -0E0,
                            2.7418748E-4,
                            -0E0,
                            -9.684802E-3,
                            -0E0,
                            5.292351E-3,
                            -0E0,
                            -1.650545E-3,
                            -0E0,
                            8.916052E-4,
                            -1.1999126E-3,
                            -0E0,
                            -0E0,
                            7.167337E-4,
                            -3.2625772E-4,
                            -0E0
                        ],
                        "categories": [],
                        "categories_nodes": [],
                        "categories_segments": [],
                        "categories_sizes": [],
                        "default_left": [
                            0,
                            0,
                            0,
                            0,
                            0,
                            0,
                            0,
                            0,
                            0,
                            0,
                            0,
                            0,
                            0,
                            0,
                            0,
                            0,
                            0,
                            0,
                            0,
                            0,
                            0,
                            0,
                            0,
                            0,
                            0,
                            0,
                            0,
                            0,
                            0,
                            0,
                            0,
                            0,
                            0
                        ],
                        "id": 2,
                        "left_children": [
                            1,
                            3,
                            -1,
                            5,
                            7,
                            9,
                            -1,
                            11,
                            13,
                            15,
                            -1,
                            17,
                            19,
                            21,
                            23,
                            -1,
                            25,
                            -1,
                            -1,
                            -1,
                            27,
                            -1,
                            29,
                            -1,
                            31,
                            -1,
                            -1,
                            -1,
                            -1,
                            -1,
                            -1,
                            -1,
                            -1
                        ],
                        "loss_changes": [
                            4.6633338E-3,
                            5.5876834E-4,
                            0E0,
                            5.546616E-4,
                            5.649637E-4,
                            4.2304583E-4,
                            0E0,
                            9.923212E-4,
                            2.1893493E-4,
                            2.5113253E-4,
                            0E0,
                            6.014301E-5,
                            7.723371E-4,
                            2.572177E-4,
                            9.807476E-5,
                            0E0,
                            3.088495E-4,
                            0E0,
                            0E0,
                            0E0,
                            4.409002E-4,
                            0E0,
                            2.4303742E-4,
                            0E0,
                            1.7867991E-4,
                            0E0,
                            0E0,
                            0E0,
                            0E0,
                            0E0,
                            0E0,
                            0E0,
                            0E0
                        ],
                        "parents": [
                            2147483647,
                            0,
                            0,
                            1,
                            1,
                            3,
                            3,
                            4,
                            4,
                            5,
                            5,
                            7,
                            7,
                            8,
                            8,
                            9,
                            9,
                            11,
                            11,
                            12,
                            12,
                            13,
                            13,
                            14,
                            14,
                            16,
                            16,
                            20,
                            20,
                            22,
                            22,
                            24,
                            24
                        ],
                        "right_children": [
                            2,
                            4,
                            -1,
                            6,
                            8,
                            10,
                            -1,
                            12,
                            14,
                            16,
                            -1,
                            18,
                            20,
                            22,
                            24,
                            -1,
                            26,
                            -1,
                            -1,
                            -1,
                            28,
                            -1,
                            30,
                            -1,
                            32,
                            -1,
                            -1,
                            -1,
                            -1,
                            -1,
                            -1,
                            -1,
                            -1
                        ],
                        "split_conditions": [
                            1.0129901E0,
                            -5.929595E-3,
                            -3.4271402E-3,
                            6.2598847E-3,
                            3.5924397E1,
                            1.2213697E-2,
                            -0E0,
                            3.4806625E1,
                            -4.0675635E-3,
                            -4.0588686E-3,
                            -0E0,
                            -6.1364505E-3,
                            -4.6884166E-3,
                            9.7622E1,
                            -9.429769E-3,
                            -0E0,
                            9.3745105E-3,
                            -0E0,
                            2.7418748E-4,
                            -0E0,
                            1.8403956E-3,
                            -0E0,
                            -1.5422908E-2,
                            -0E0,
                            4.3871305E-3,
                            -0E0,
                            8.916052E-4,
                            -1.1999126E-3,
                            -0E0,
                            -0E0,
                            7.167337E-4,
                            -3.2625772E-4,
                            -0E0
                        ],
                        "split_indices": [
                            13,
                            18,
                            0,
                            45,
                            48,
                            15,
                            0,
                            25,
                            45,
                            2,
                            0,
                            45,
                            46,
                            5,
                            32,
                            0,
                            54,
                            0,
                            0,
                            0,
                            2,
                            0,
                            45,
                            0,
                            12,
                            0,
                            0,
                            0,
                            0,
                            0,
                            0,
                            0,
                            0
                        ],
                        "split_type": [
                            0,
                            0,
                            0,
                            0,
                            0,
                            0,
                            0,
                            0,
                            0,
                            0,
                            0,
                            0,
                            0,
                            0,
                            0,
                            0,
                            0,
                            0,
                            0,
                            0,
                            0,
                            0,
                            0,
                            0,
                            0,
                            0,
                            0,
                            0,
                            0,
                            0,
                            0,
                            0,
                            0
                        ],
                        "sum_hessian": [
                            1.73E2,
                            1.7E2,
                            3E0,
                            6.2E1,
                            1.08E2,
                            4E1,
                            2.2E1,
                            4.7E1,
                            6.1E1,
                            3.5E1,
                            5E0,
                            1.1E1,
                            3.6E1,
                            1.9E1,
                            4.2E1,
                            8E0,
                            2.7E1,
                            4E0,
                            7E0,
                            1.1E1,
                            2.5E1,
                            3E0,
                            1.6E1,
                            7E0,
                            3.5E1,
                            3E0,
                            2.4E1,
                            1.9E1,
                            6E0,
                            3E0,
                            1.3E1,
                            2.5E1,
                            1E1
                        ],
                        "tree_param": {
                            "num_deleted": "0",
                            "num_feature": "58",
                            "num_nodes": "33",
                            "size_leaf_vector": "1"
                        }
                    },
                    {
                        "base_weights": [
                            -1.1344787E-3,
                            -0E0,
                            -3.4239236E-3,
                            2.408083E-3,
                            -3.6825337E-3,
                            5.446255E-3,
                            -0E0,
                            -1.52883595E-2,
                            -6.723858E-4,
                            7.416452E-3,
                            -0E0,
                            -9.0578495E-4,
                            5.7340105E-4,
                            -0E0,
                            -2.4595053E-3,
                            -2.4636018E-3,
                            -0E0,
                            -0E0,
                            9.298636E-3,
                            -0E0,
                            -3.1532797E-3,
                            -0E0,
                            1.9214408E-3,
                            -0E0,
                            -7.6815216E-3,
                            -0E0,
                            5.8169273E-4,
                            1.0898969E-3,
                            -0E0,
                            -4.733468E-4,
                            -0E0,
                            -0E0,
                            3.0193786E-4,
                            -0E0,
                            -8.7301154E-4,
                            8.805023E-5,
                            -0E0
                        ],
                        "categories": [],
                        "categories_nodes": [],
                        "categories_segments": [],
                        "categories_sizes": [],
                        "default_left": [
                            0,
                            0,
                            0,
                            0,
                            0,
                            0,
                            0,
                            0,
                            0,
                            0,
                            0,
                            0,
                            0,
                            0,
                            0,
                            0,
                            0,
                            0,
                            0,
                            0,
                            0,
                            0,
                            0,
                            0,
                            0,
                            0,
                            0,
                            0,
                            0,
                            0,
                            0,
                            0,
                            0,
                            0,
                            0,
                            0,
                            0
                        ],
                        "id": 3,
                        "left_children": [
                            1,
                            3,
                            -1,
                            5,
                            7,
                            9,
                            11,
                            13,
                            15,
                            17,
                            -1,
                            19,
                            21,
                            -1,
                            -1,
                            23,
                            25,
                            -1,
                            27,
                            -1,
                            29,
                            -1,
                            31,
                            -1,
                            33,
                            -1,
                            35,
                            -1,
                            -1,
                            -1,
                            -1,
                            -1,
                            -1,
                            -1,
                            -1,
                            -1,
                            -1
                        ],
                        "loss_changes": [
                            4.4563464E-3,
                            1.6744961E-3,
                            0E0,
                            8.019483E-4,
                            1.2583367E-3,
                            6.156971E-4,
                            3.315885E-5,
                            1.2921598E-3,
                            3.0080986E-4,
                            6.138035E-4,
                            0E0,
                            2.5215454E-4,
                            5.5858327E-5,
                            0E0,
                            0E0,
                            9.0530794E-4,
                            5.4138636E-6,
                            0E0,
                            4.9453694E-4,
                            0E0,
                            2.3692264E-4,
                            0E0,
                            6.487017E-5,
                            0E0,
                            1.3274711E-4,
                            0E0,
                            4.664831E-6,
                            0E0,
                            0E0,
                            0E0,
                            0E0,
                            0E0,
                            0E0,
                            0E0,
                            0E0,
                            0E0,
                            0E0
                        ],
                        "parents": [
                            2147483647,
                            0,
                            0,
                            1,
                            1,
                            3,
                            3,
                            4,
                            4,
                            5,
                            5,
                            6,
                            6,
                            7,
                            7,
                            8,
                            8,
                            9,
                            9,
                            11,
                            11,
                            12,
                            12,
                            15,
                            15,
                            16,
                            16,
                            18,
                            18,
                            20,
                            20,
                            22,
                            22,
                            24,
                            24,
                            26,
                            26
                        ],
                        "right_children": [
                            2,
                            4,
                            -1,
                            6,
                            8,
                            10,
                            12,
                            14,
                            16,
                            18,
                            -1,
                            20,
                            22,
                            -1,
                            -1,
                            24,
                            26,
                            -1,
                            28,
                            -1,
                            30,
                            -1,
                            32,
                            -1,
                            34,
                            -1,
                            36,
                            -1,
                            -1,
                            -1,
                            -1,
                            -1,
                            -1,
                            -1,
                            -1,
                            -1,
                            -1
                        ],
                        "split_conditions": [
                            5.62645E0,
                            4.721809E0,
                            -3.4239236E-3,
                            6.3677135E1,
                            3.507105E1,
                            5.3492336E1,
                            1.0347156E-3,
                            4.773012E0,
                            1.1388086E-2,
                            -2.2682227E-2,
                            -0E0,
                            3.0203426E1,
                            1.3328436E-2,
                            -0E0,
                            -2.4595053E-3,
                            1.0254394E-4,
                            9.761019E1,
                            -0E0,
                            2.123359E-3,
                            -0E0,
                            7.388892E1,
                            -0E0,
                            1.029442E0,
                            -0E0,
                            -1.3154719E-2,
                            -0E0,
                            1.366292E-2,
                            1.0898969E-3,
                            -0E0,
                            -4.733468E-4,
                            -0E0,
                            -0E0,
                            3.0193786E-4,
                            -0E0,
                            -8.7301154E-4,
                            8.805023E-5,
                            -0E0
                        ],
                        "split_indices": [
                            35,
                            38,
                            0,
                            53,
                            47,
                            25,
                            2,
                            36,
                            14,
                            46,
                            0,
                            25,
                            54,
                            0,
                            0,
                            0,
                            6,
                            0,
                            0,
                            0,
                            53,
                            0,
                            55,
                            0,
                            42,
                            0,
                            30,
                            0,
                            0,
                            0,
                            0,
                            0,
                            0,
                            0,
                            0,
                            0,
                            0
                        ],
                        "split_type": [
                            0,
                            0,
                            0,
                            0,
                            0,
                            0,
                            0,
                            0,
                            0,
                            0,
                            0,
                            0,
                            0,
                            0,
                            0,
                            0,
                            0,
                            0,
                            0,
                            0,
                            0,
                            0,
                            0,
                            0,
                            0,
                            0,
                            0,
                            0,
                            0,
                            0,
                            0,
                            0,
                            0,
                            0,
                            0,
                            0,
                            0
                        ],
                        "sum_hessian": [
                            1.8E2,
                            1.77E2,
                            3E0,
                            9.6E1,
                            8.1E1,
                            4.5E1,
                            5.1E1,
                            9E0,
                            7.2E1,
                            3.5E1,
                            1E1,
                            3.1E1,
                            2E1,
                            4E0,
                            5E0,
                            5.4E1,
                            1.8E1,
                            6E0,
                            2.9E1,
                            4E0,
                            2.7E1,
                            4E0,
                            1.6E1,
                            3.4E1,
                            2E1,
                            3E0,
                            1.5E1,
                            2.5E1,
                            4E0,
                            2.2E1,
                            5E0,
                            3E0,
                            1.3E1,
                            3E0,
                            1.7E1,
                            1.2E1,
                            3E0
                        ],
                        "tree_param": {
                            "num_deleted": "0",
                            "num_feature": "58",
                            "num_nodes": "37",
                            "size_leaf_vector": "1"
                        }
                    },
                    {
                        "base_weights": [
                            5.4536053E-5,
                            1.4536943E-3,
                            -2.2245536E-2,
                            -0E0,
                            6.3801166E-3,
                            -0E0,
                            -4.1330294E-3,
                            5.6054624E-4,
                            -8.203418E-3,
                            1.274461E-2,
                            -0E0,
                            -2.0207926E-3,
                            2.373935E-3,
                            -0E0,
                            -9.465534E-3,
                            -0E0,
                            1.6863674E-2,
                            -0E0,
                            -6.208638E-3,
                            3.6319788E-3,
                            -0E0,
                            -0E0,
                            -1.1226687E-3,
                            -0E0,
                            1.948555E-2,
                            -0E0,
                            -9.454311E-4,
                            5.6229386E-4,
                            -0E0,
                            -0E0,
                            2.2404268E-3
                        ],
                        "categories": [],
                        "categories_nodes": [],
                        "categories_segments": [],
                        "categories_sizes": [],
                        "default_left": [
                            0,
                            0,
                            0,
                            0,
                            0,
                            0,
                            0,
                            0,
                            0,
                            0,
                            0,
                            0,
                            0,
                            0,
                            0,
                            0,
                            0,
                            0,
                            0,
                            0,
                            0,
                            0,
                            0,
                            0,
                            0,
                            0,
                            0,
                            0,
                            0,
                            0,
                            0
                        ],
                        "id": 4,
                        "left_children": [
                            1,
                            3,
                            5,
                            7,
                            9,
                            -1,
                            -1,
                            11,
                            13,
                            15,
                            -1,
                            17,
                            19,
                            -1,
                            21,
                            -1,
                            23,
                            -1,
                            25,
                            27,
                            -1,
                            -1,
                            -1,
                            -1,
                            29,
                            -1,
                            -1,
                            -1,
                            -1,
                            -1,
                            -1
                        ],
                        "loss_changes": [
                            3.8502053E-3,
                            1.8521033E-3,
                            3.368725E-3,
                            1.2465211E-3,
                            1.8218036E-3,
                            0E0,
                            0E0,
                            5.643801E-4,
                            1.3261568E-4,
                            1.911425E-3,
                            0E0,
                            4.4165415E-4,
                            4.6139723E-4,
                            0E0,
                            4.2478554E-5,
                            0E0,
                            8.623069E-4,
                            0E0,
                            2.6479532E-4,
                            5.2305695E-4,
                            0E0,
                            0E0,
                            0E0,
                            0E0,
                            6.949096E-4,
                            0E0,
                            0E0,
                            0E0,
                            0E0,
                            0E0,
                            0E0
                        ],
                        "parents": [
                            2147483647,
                            0,
                            0,
                            1,
                            1,
                            2,
                            2,
                            3,
                            3,
                            4,
                            4,
                            7,
                            7,
                            8,
                            8,
                            9,
                            9,
                            11,
                            11,
                            12,
                            12,
                            14,
                            14,
                            16,
                            16,
                            18,
                            18,
                            19,
                            19,
                            24,
                            24
                        ],
                        "right_children": [
                            2,
                            4,
                            6,
                            8,
                            10,
                            -1,
                            -1,
                            12,
                            14,
                            16,
                            -1,
                            18,
                            20,
                            -1,
                            22,
                            -1,
                            24,
                            -1,
                            26,
                            28,
                            -1,
                            -1,
                            -1,
                            -1,
                            30,
                            -1,
                            -1,
                            -1,
                            -1,
                            -1,
                            -1
                        ],
                        "split_conditions": [
                            6.977543E1,
                            2.0816722E-3,
                            3.5515719E-3,
                            7.3607605E1,
                            -3.7878216E-3,
                            -0E0,
                            -4.1330294E-3,
                            -6.1364505E-3,
                            -1.6626714E-2,
                            6.0793E1,
                            -0E0,
                            4.61125E0,
                            1.7102877E-2,
                            -0E0,
                            1.7846953E-3,
                            -0E0,
                            -2.2718603E-2,
                            -0E0,
                            9.9341995E1,
                            6.6881E1,
                            -0E0,
                            -0E0,
                            -1.1226687E-3,
                            -0E0,
                            3.30586E1,
                            -0E0,
                            -9.454311E-4,
                            5.6229386E-4,
                            -0E0,
                            -0E0,
                            2.2404268E-3
                        ],
                        "split_indices": [
                            11,
                            2,
                            2,
                            39,
                            45,
                            0,
                            0,
                            42,
                            18,
                            23,
                            0,
                            35,
                            28,
                            0,
                            32,
                            0,
                            29,
                            0,
                            5,
                            23,
                            0,
                            0,
                            0,
                            0,
                            49,
                            0,
                            0,
                            0,
                            0,
                            0,
                            0
                        ],
                        "split_type": [
                            0,
                            0,
                            0,
                            0,
                            0,
                            0,
                            0,
                            0,
                            0,
                            0,
                            0,
                            0,
                            0,
                            0,
                            0,
                            0,
                            0,
                            0,
                            0,
                            0,
                            0,
                            0,
                            0,
                            0,
                            0,
                            0,
                            0,
                            0,
                            0,
                            0,
                            0
                        ],
                        "sum_hessian": [
                            1.88E2,
                            1.82E2,
                            6E0,
                            1.28E2,
                            5.4E1,
                            3E0,
                            3E0,
                            1.11E2,
                            1.7E1,
                            2.4E1,
                            3E1,
                            2.3E1,
                            8.8E1,
                            3E0,
                            1.4E1,
                            4E0,
                            2E1,
                            1E1,
                            1.3E1,
                            7.2E1,
                            1.6E1,
                            4E0,
                            1E1,
                            3E0,
                            1.7E1,
                            5E0,
                            8E0,
                            4.6E1,
                            2.6E1,
                            3E0,
                            1.4E1
                        ],
                        "tree_param": {
                            "num_deleted": "0",
                            "num_feature": "58",
                            "num_nodes": "31",
                            "size_leaf_vector": "1"
                        }
                    },
                    {
                        "base_weights": [
                            8.245331E-6,
                            1.1149227E-3,
                            -2.7560992E-3,
                            2.9582628E-3,
                            -6.419251E-3,
                            5.74775E-3,
                            -0E0,
                            -8.15852E-3,
                            -0E0,
                            1.0193733E-2,
                            -0E0,
                            2.3287747E-3,
                            -3.9268436E-4,
                            -9.803704E-4,
                            -0E0,
                            1.4596275E-2,
                            -0E0,
                            -0E0,
                            4.940418E-3,
                            -0E0,
                            -2.3474782E-3,
                            -0E0,
                            1.8577072E-3,
                            6.916035E-4,
                            -0E0,
                            -0E0,
                            -4.133315E-4
                        ],
                        "categories": [],
                        "categories_nodes": [],
                        "categories_segments": [],
                        "categories_sizes": [],
                        "default_left": [
                            0,
                            0,
                            0,
                            0,
                            0,
                            0,
                            0,
                            0,
                            0,
                            0,
                            0,
                            0,
                            0,
                            0,
                            0,
                            0,
                            0,
                            0,
                            0,
                            0,
                            0,
                            0,
                            0,
                            0,
                            0,
                            0,
                            0
                        ],
                        "id": 5,
                        "left_children": [
                            1,
                            3,
                            -1,
                            5,
                            7,
                            9,
                            11,
                            13,
                            -1,
                            15,
                            -1,
                            17,
                            19,
                            -1,
                            -1,
                            21,
                            -1,
                            -1,
                            23,
                            -1,
                            25,
                            -1,
                            -1,
                            -1,
                            -1,
                            -1,
                            -1
                        ],
                        "loss_changes": [
                            3.2746E-3,
                            2.3116197E-3,
                            0E0,
                            1.0425309E-3,
                            4.8489147E-4,
                            1.574828E-3,
                            1.8790897E-4,
                            3.2477768E-4,
                            0E0,
                            1.0606549E-3,
                            0E0,
                            3.824125E-4,
                            2.2801445E-4,
                            0E0,
                            0E0,
                            1.0987064E-3,
                            0E0,
                            0E0,
                            3.474215E-4,
                            0E0,
                            3.4390777E-4,
                            0E0,
                            0E0,
                            0E0,
                            0E0,
                            0E0,
                            0E0
                        ],
                        "parents": [
                            2147483647,
                            0,
                            0,
                            1,
                            1,
                            3,
                            3,
                            4,
                            4,
                            5,
                            5,
                            6,
                            6,
                            7,
                            7,
                            9,
                            9,
                            11,
                            11,
                            12,
                            12,
                            15,
                            15,
                            18,
                            18,
                            20,
                            20
                        ],
                        "right_children": [
                            2,
                            4,
                            -1,
                            6,
                            8,
                            10,
                            12,
                            14,
                            -1,
                            16,
                            -1,
                            18,
                            20,
                            -1,
                            -1,
                            22,
                            -1,
                            -1,
                            24,
                            -1,
                            26,
                            -1,
                            -1,
                            -1,
                            -1,
                            -1,
                            -1
                        ],
                        "split_conditions": [
                            5.6618E0,
                            7.352748E1,
                            -2.7560992E-3,
                            4.349918E1,
                            1.3854145E-2,
                            -3.0323237E-4,
                            -1.8518236E-3,
                            3.2703087E-3,
                            -0E0,
                            7.0139975E-4,
                            -0E0,
                            -3.8369496E-3,
                            -6.109562E-3,
                            -9.803704E-4,
                            -0E0,
                            -1.3285361E-3,
                            -0E0,
                            -0E0,
                            1.0083337E0,
                            -0E0,
                            9.8156E1,
                            -0E0,
                            1.8577072E-3,
                            6.916035E-4,
                            -0E0,
                            -0E0,
                            -4.133315E-4
                        ],
                        "split_indices": [
                            33,
                            39,
                            0,
                            25,
                            16,
                            4,
                            1,
                            1,
                            0,
                            1,
                            0,
                            28,
                            28,
                            0,
                            0,
                            3,
                            0,
                            0,
                            27,
                            0,
                            7,
                            0,
                            0,
                            0,
                            0,
                            0,
                            0
                        ],
                        "split_type": [
                            0,
                            0,
                            0,
                            0,
                            0,
                            0,
                            0,
                            0,
                            0,
                            0,
                            0,
                            0,
                            0,
                            0,
                            0,
                            0,
                            0,
                            0,
                            0,
                            0,
                            0,
                            0,
                            0,
                            0,
                            0,
                            0,
                            0
                        ],
                        "sum_hessian": [
                            1.92E2,
                            1.89E2,
                            3E0,
                            1.63E2,
                            2.6E1,
                            7.4E1,
                            8.9E1,
                            2.3E1,
                            3E0,
                            3.8E1,
                            3.6E1,
                            3.2E1,
                            5.7E1,
                            1.9E1,
                            4E0,
                            2.3E1,
                            1.5E1,
                            1E1,
                            2.2E1,
                            1.5E1,
                            4.2E1,
                            6E0,
                            1.7E1,
                            1.8E1,
                            4E0,
                            9E0,
                            3.3E1
                        ],
                        "tree_param": {
                            "num_deleted": "0",
                            "num_feature": "58",
                            "num_nodes": "27",
                            "size_leaf_vector": "1"
                        }
                    },
                    {
                        "base_weights": [
                            -0E0,
                            4.46852E-3,
                            -2.6706397E-3,
                            -0E0,
                            1.0700914E-2,
                            -4.659674E-3,
                            -0E0,
                            2.0696358E-3,
                            -1.4732525E-3,
                            -0E0,
                            1.7538732E-2,
                            -0E0,
                            -5.614506E-3,
                            4.4025653E-3,
                            -0E0,
                            -0E0,
                            -4.980282E-4,
                            2.2275977E-2,
                            -0E0,
                            -0E0,
                            -6.3637346E-3,
                            5.7649687E-3,
                            -0E0,
                            -0E0,
                            2.6092166E-3,
                            -0E0,
                            -7.1473178E-3,
                            8.059565E-4,
                            -0E0,
                            -0E0,
                            -9.208113E-4
                        ],
                        "categories": [],
                        "categories_nodes": [],
                        "categories_segments": [],
                        "categories_sizes": [],
                        "default_left": [
                            0,
                            0,
                            0,
                            0,
                            0,
                            0,
                            0,
                            0,
                            0,
                            0,
                            0,
                            0,
                            0,
                            0,
                            0,
                            0,
                            0,
                            0,
                            0,
                            0,
                            0,
                            0,
                            0,
                            0,
                            0,
                            0,
                            0,
                            0,
                            0,
                            0,
                            0
                        ],
                        "id": 6,
                        "left_children": [
                            1,
                            3,
                            5,
                            7,
                            9,
                            11,
                            -1,
                            13,
                            15,
                            -1,
                            17,
                            -1,
                            19,
                            21,
                            -1,
                            -1,
                            -1,
                            23,
                            -1,
                            -1,
                            25,
                            27,
                            -1,
                            -1,
                            -1,
                            -1,
                            29,
                            -1,
                            -1,
                            -1,
                            -1
                        ],
                        "loss_changes": [
                            2.209392E-3,
                            1.4450342E-3,
                            8.1504264E-4,
                            1.7602196E-4,
                            2.058975E-3,
                            5.3681224E-4,
                            0E0,
                            2.6139888E-4,
                            2.424486E-4,
                            0E0,
                            1.0329154E-3,
                            0E0,
                            4.0777633E-4,
                            1.5795845E-4,
                            0E0,
                            0E0,
                            0E0,
                            1.7258106E-4,
                            0E0,
                            0E0,
                            4.6264683E-4,
                            1.4952972E-4,
                            0E0,
                            0E0,
                            0E0,
                            0E0,
                            3.7760846E-4,
                            0E0,
                            0E0,
                            0E0,
                            0E0
                        ],
                        "parents": [
                            2147483647,
                            0,
                            0,
                            1,
                            1,
                            2,
                            2,
                            3,
                            3,
                            4,
                            4,
                            5,
                            5,
                            7,
                            7,
                            8,
                            8,
                            10,
                            10,
                            12,
                            12,
                            13,
                            13,
                            17,
                            17,
                            20,
                            20,
                            21,
                            21,
                            26,
                            26
                        ],
                        "right_children": [
                            2,
                            4,
                            6,
                            8,
                            10,
                            12,
                            -1,
                            14,
                            16,
                            -1,
                            18,
                            -1,
                            20,
                            22,
                            -1,
                            -1,
                            -1,
                            24,
                            -1,
                            -1,
                            26,
                            28,
                            -1,
                            -1,
                            -1,
                            -1,
                            30,
                            -1,
                            -1,
                            -1,
                            -1
                        ],
                        "split_conditions": [
                            -3.7878216E-3,
                            2.3229546E-3,
                            5.523288E-3,
                            6.7104E1,
                            -7.1919954E-4,
                            2.8504044E1,
                            -0E0,
                            6.6024833E-3,
                            3.0203426E1,
                            -0E0,
                            5.03005E0,
                            -0E0,
                            1.0596781E-2,
                            1.6270632E-2,
                            -0E0,
                            -0E0,
                            -4.980282E-4,
                            3.3582504E1,
                            -0E0,
                            -0E0,
                            5.9333E1,
                            1.0179586E-3,
                            -0E0,
                            -0E0,
                            2.6092166E-3,
                            -0E0,
                            9.819373E1,
                            8.059565E-4,
                            -0E0,
                            -0E0,
                            -9.208113E-4
                        ],
                        "split_indices": [
                            45,
                            2,
                            14,
                            23,
                            3,
                            11,
                            0,
                            42,
                            25,
                            0,
                            35,
                            0,
                            26,
                            44,
                            0,
                            0,
                            0,
                            52,
                            0,
                            0,
                            21,
                            1,
                            0,
                            0,
                            0,
                            0,
                            8,
                            0,
                            0,
                            0,
                            0
                        ],
                        "split_type": [
                            0,
                            0,
                            0,
                            0,
                            0,
                            0,
                            0,
                            0,
                            0,
                            0,
                            0,
                            0,
                            0,
                            0,
                            0,
                            0,
                            0,
                            0,
                            0,
                            0,
                            0,
                            0,
                            0,
                            0,
                            0,
                            0,
                            0,
                            0,
                            0,
                            0,
                            0
                        ],
                        "sum_hessian": [
                            1.8E2,
                            7E1,
                            1.1E2,
                            4.6E1,
                            2.4E1,
                            7.3E1,
                            3.7E1,
                            3.3E1,
                            1.3E1,
                            9E0,
                            1.5E1,
                            6E0,
                            6.7E1,
                            2E1,
                            1.3E1,
                            3E0,
                            1E1,
                            1.1E1,
                            4E0,
                            5E0,
                            6.2E1,
                            1.6E1,
                            4E0,
                            3E0,
                            8E0,
                            4E0,
                            5.8E1,
                            1E1,
                            6E0,
                            1.9E1,
                            3.9E1
                        ],
                        "tree_param": {
                            "num_deleted": "0",
                            "num_feature": "58",
                            "num_nodes": "31",
                            "size_leaf_vector": "1"
                        }
                    },
                    {
                        "base_weights": [
                            -7.153596E-5,
                            1.6065937E-4,
                            -3.5444393E-3,
                            4.620881E-3,
                            -8.713107E-4,
                            8.461045E-3,
                            -0E0,
                            -3.0157745E-3,
                            3.9782422E-4,
                            1.4351148E-2,
                            -0E0,
                            -0E0,
                            -4.309632E-3,
                            3.0261464E-3,
                            -0E0,
                            2.0295475E-3,
                            -0E0,
                            -0E0,
                            -4.979942E-3,
                            5.481052E-3,
                            -0E0,
                            -8.4997114E-4,
                            -0E0,
                            -0E0,
                            -5.6420953E-4,
                            6.1921735E-4,
                            -0E0,
                            -0E0,
                            -1.5946258E-4
                        ],
                        "categories": [],
                        "categories_nodes": [],
                        "categories_segments": [],
                        "categories_sizes": [],
                        "default_left": [
                            0,
                            0,
                            0,
                            0,
                            0,
                            0,
                            0,
                            0,
                            0,
                            0,
                            0,
                            0,
                            0,
                            0,
                            0,
                            0,
                            0,
                            0,
                            0,
                            0,
                            0,
                            0,
                            0,
                            0,
                            0,
                            0,
                            0,
                            0,
                            0
                        ],
                        "id": 7,
                        "left_children": [
                            1,
                            3,
                            -1,
                            5,
                            7,
                            9,
                            -1,
                            11,
                            13,
                            15,
                            -1,
                            -1,
                            17,
                            19,
                            21,
                            -1,
                            -1,
                            -1,
                            23,
                            25,
                            -1,
                            27,
                            -1,
                            -1,
                            -1,
                            -1,
                            -1,
                            -1,
                            -1
                        ],
                        "loss_changes": [
                            5.028909E-3,
                            1.2028872E-3,
                            0E0,
                            7.509893E-4,
                            6.1136135E-4,
                            6.10144E-4,
                            0E0,
                            5.255062E-4,
                            2.8481227E-4,
                            4.1187834E-4,
                            0E0,
                            0E0,
                            3.3657555E-4,
                            2.4771277E-4,
                            1.0114313E-5,
                            0E0,
                            0E0,
                            0E0,
                            2.8393918E-4,
                            3.4390367E-5,
                            0E0,
                            1.2771167E-5,
                            0E0,
                            0E0,
                            0E0,
                            0E0,
                            0E0,
                            0E0,
                            0E0
                        ],
                        "parents": [
                            2147483647,
                            0,
                            0,
                            1,
                            1,
                            3,
                            3,
                            4,
                            4,
                            5,
                            5,
                            7,
                            7,
                            8,
                            8,
                            9,
                            9,
                            12,
                            12,
                            13,
                            13,
                            14,
                            14,
                            18,
                            18,
                            19,
                            19,
                            21,
                            21
                        ],
                        "right_children": [
                            2,
                            4,
                            -1,
                            6,
                            8,
                            10,
                            -1,
                            12,
                            14,
                            16,
                            -1,
                            -1,
                            18,
                            20,
                            22,
                            -1,
                            -1,
                            -1,
                            24,
                            26,
                            -1,
                            28,
                            -1,
                            -1,
                            -1,
                            -1,
                            -1,
                            -1,
                            -1
                        ],
                        "split_conditions": [
                            9.300427E-3,
                            -5.978356E-3,
                            -3.5444393E-3,
                            4.4015453E1,
                            9.1078697E-4,
                            -2.7057363E-4,
                            -0E0,
                            -1.1549145E-2,
                            5.307034E-3,
                            1.016499E0,
                            -0E0,
                            -0E0,
                            3.3768482E1,
                            -4.0675635E-3,
                            1.1676437E-2,
                            2.0295475E-3,
                            -0E0,
                            -0E0,
                            -1.1549145E-2,
                            1.2213697E-2,
                            -0E0,
                            3.7855633E1,
                            -0E0,
                            -0E0,
                            -5.6420953E-4,
                            6.1921735E-4,
                            -0E0,
                            -0E0,
                            -1.5946258E-4
                        ],
                        "split_indices": [
                            0,
                            32,
                            0,
                            11,
                            3,
                            45,
                            0,
                            42,
                            28,
                            55,
                            0,
                            0,
                            53,
                            45,
                            42,
                            0,
                            0,
                            0,
                            44,
                            14,
                            0,
                            11,
                            0,
                            0,
                            0,
                            0,
                            0,
                            0,
                            0
                        ],
                        "split_type": [
                            0,
                            0,
                            0,
                            0,
                            0,
                            0,
                            0,
                            0,
                            0,
                            0,
                            0,
                            0,
                            0,
                            0,
                            0,
                            0,
                            0,
                            0,
                            0,
                            0,
                            0,
                            0,
                            0,
                            0,
                            0,
                            0,
                            0,
                            0,
                            0
                        ],
                        "sum_hessian": [
                            1.81E2,
                            1.78E2,
                            3E0,
                            5.1E1,
                            1.27E2,
                            2.5E1,
                            2.6E1,
                            7.6E1,
                            5.1E1,
                            1.1E1,
                            1.4E1,
                            1.1E1,
                            6.5E1,
                            3.1E1,
                            2E1,
                            6E0,
                            5E0,
                            3E0,
                            6.2E1,
                            1.7E1,
                            1.4E1,
                            1.3E1,
                            7E0,
                            5E0,
                            5.7E1,
                            1.4E1,
